<?xml version="1.0"?>
<opencv_storage>
<opencv_ml_svm>
  <format>3</format>
  <svmType>C_SVC</svmType>
  <kernel>
    <type>RBF</type>
    <gamma>1.</gamma></kernel>
  <C>1.</C>
  <term_criteria><epsilon>1.1920928955078125e-07</epsilon>
    <iterations>1000</iterations></term_criteria>
  <var_count>5</var_count>
  <class_count>3</class_count>
  <class_labels type_id="opencv-matrix">
    <rows>3</rows>
    <cols>1</cols>
    <dt>i</dt>
    <data>
      0 1 2</data></class_labels>
  <sv_total>20</sv_total>
  <support_vectors>
    <_>
      2. 1. 7. 2. 2.</_>
    <_>
      1. 3. 7. 6. 1.</_>
    <_>
      1. 2. 0. 4. 6.</_>
    <_>
      2. 5. 0. 9. 6.</_>
    <_>
      8. 1. 8. 0. 0.</_>
    <_>
      5. 4. 5. 2. 9.</_>
    <_>
      4. 9. 5. 2. 5.</_>
    <_>
      8. 8. 9. 8. 5.</_>
    <_>
      5. 8. 4. 8. 3.</_>
    <_>
      0. 1. 0. 5. 0.</_>
    <_>
      1. 8. 7. 0. 8.</_>
    <_>
      8. 4. 3. 5. 6.</_>
    <_>
      8. 4. 6. 3. 1.</_>
    <_>
      8. 0. 4. 2. 6.</_>
    <_>
      2. 8. 8. 6. 0.</_>
    <_>
      7. 4. 0. 4. 3.</_>
    <_>
      2. 6. 4. 8. 2.</_>
    <_>
      2. 8. 7. 2. 8.</_>
    <_>
      2. 7. 3. 3. 4.</_>
    <_>
      6. 8. 5. 0. 3.</_></support_vectors>
  <decision_functions>
    <_>
      <sv_count>17</sv_count>
      <rho>-1.1186002330124015e-01</rho>
      <alpha>
        8.8814003560083621e-01 8.8814003779776918e-01
        8.8813992860715552e-01 8.9487787616416414e-01
        8.8813992860742852e-01 8.8814003779784856e-01
        8.8813993075972342e-01 8.8813992873502834e-01
        8.8814229593004612e-01 -1. -1. -1. -1. -1. -1. -1. -1.</alpha>
      <index>
        2 3 4 10 12 14 15 16 19 0 1 5 6 9 11 13 17</index></_>
    <_>
      <sv_count>12</sv_count>
      <rho>-6.6666675905110173e-01</rho>
      <alpha>
        3.3333328068409501e-01 3.3333328068390122e-01
        3.3333328064969608e-01 3.3333316147876346e-01
        3.3333316144455677e-01 3.3333328068366896e-01
        3.3333316147876357e-01 3.3333411221242587e-01
        3.3333328068412904e-01 -1. -1. -1.</alpha>
      <index>
        2 3 4 10 12 14 15 16 19 7 8 18</index></_>
    <_>
      <sv_count>11</sv_count>
      <rho>-6.2500010248663662e-01</rho>
      <alpha>
        3.7499989694153302e-01 3.7499989693298558e-01
        3.7499989892385704e-01 3.7500072474138796e-01
        3.7499989704613818e-01 3.7499989704389014e-01
        3.7499989704390269e-01 3.7499989132630551e-01 -1. -1. -1.</alpha>
      <index>
        0 1 5 6 9 11 13 17 7 8 18</index></_></decision_functions></opencv_ml_svm>
</opencv_storage>
